v1	V(v_1)	V(v_2)	V(vout)	I(V3)
-2.500000000000000e+000	0.000000e+000	2.500000e+000	2.500000e+000	-1.081840e-004
-2.490000000000000e+000	1.000000e-002	2.500000e+000	2.500000e+000	-1.080931e-004
-2.480000000000000e+000	2.000000e-002	2.500000e+000	2.500000e+000	-1.080010e-004
-2.470000000000001e+000	3.000000e-002	2.500000e+000	2.500000e+000	-1.079082e-004
-2.460000000000001e+000	4.000000e-002	2.500000e+000	2.500000e+000	-1.078146e-004
-2.450000000000001e+000	5.000000e-002	2.500000e+000	2.500000e+000	-1.077202e-004
-2.440000000000001e+000	6.000000e-002	2.500000e+000	2.500000e+000	-1.076249e-004
-2.430000000000002e+000	7.000000e-002	2.500000e+000	2.500000e+000	-1.075287e-004
-2.420000000000002e+000	8.000000e-002	2.500000e+000	2.500000e+000	-1.074317e-004
-2.410000000000002e+000	9.000000e-002	2.500000e+000	2.500000e+000	-1.073338e-004
-2.400000000000002e+000	1.000000e-001	2.500000e+000	2.500000e+000	-1.072350e-004
-2.390000000000002e+000	1.100000e-001	2.500000e+000	2.500000e+000	-1.071353e-004
-2.380000000000003e+000	1.200000e-001	2.500000e+000	2.500000e+000	-1.070348e-004
-2.370000000000003e+000	1.300000e-001	2.500000e+000	2.500000e+000	-1.069333e-004
-2.360000000000003e+000	1.400000e-001	2.500000e+000	2.500000e+000	-1.068309e-004
-2.350000000000003e+000	1.500000e-001	2.500000e+000	2.500000e+000	-1.067275e-004
-2.340000000000003e+000	1.600000e-001	2.500000e+000	2.500000e+000	-1.066233e-004
-2.330000000000004e+000	1.700000e-001	2.500000e+000	2.500000e+000	-1.065180e-004
-2.320000000000004e+000	1.800000e-001	2.500000e+000	2.500000e+000	-1.064119e-004
-2.310000000000004e+000	1.900000e-001	2.500000e+000	2.500000e+000	-1.063047e-004
-2.300000000000004e+000	2.000000e-001	2.500000e+000	2.500000e+000	-1.061966e-004
-2.290000000000005e+000	2.100000e-001	2.500000e+000	2.500000e+000	-1.060875e-004
-2.280000000000005e+000	2.200000e-001	2.500000e+000	2.500000e+000	-1.059775e-004
-2.270000000000005e+000	2.300000e-001	2.500000e+000	2.500000e+000	-1.058664e-004
-2.260000000000005e+000	2.400000e-001	2.500000e+000	2.500000e+000	-1.057543e-004
-2.250000000000005e+000	2.500000e-001	2.500000e+000	2.500000e+000	-1.056412e-004
-2.240000000000006e+000	2.600000e-001	2.500000e+000	2.500000e+000	-1.055270e-004
-2.230000000000006e+000	2.700000e-001	2.500000e+000	2.500000e+000	-1.054118e-004
-2.220000000000006e+000	2.800000e-001	2.500000e+000	2.500000e+000	-1.052956e-004
-2.210000000000006e+000	2.900000e-001	2.500000e+000	2.500000e+000	-1.051783e-004
-2.200000000000006e+000	3.000000e-001	2.500000e+000	2.500000e+000	-1.050599e-004
-2.190000000000007e+000	3.100000e-001	2.500000e+000	2.500000e+000	-1.049405e-004
-2.180000000000007e+000	3.200000e-001	2.500000e+000	2.500000e+000	-1.048200e-004
-2.170000000000007e+000	3.300000e-001	2.500000e+000	2.500000e+000	-1.046983e-004
-2.160000000000007e+000	3.400000e-001	2.500000e+000	2.500000e+000	-1.045756e-004
-2.150000000000008e+000	3.500000e-001	2.500000e+000	2.500000e+000	-1.044517e-004
-2.140000000000008e+000	3.600000e-001	2.500000e+000	2.500000e+000	-1.043267e-004
-2.130000000000008e+000	3.700000e-001	2.500000e+000	2.500000e+000	-1.042005e-004
-2.120000000000008e+000	3.800000e-001	2.500000e+000	2.500000e+000	-1.040732e-004
-2.110000000000008e+000	3.900000e-001	2.500000e+000	2.500000e+000	-1.039447e-004
-2.100000000000009e+000	4.000000e-001	2.500000e+000	2.500000e+000	-1.038151e-004
-2.090000000000009e+000	4.100000e-001	2.500000e+000	2.500000e+000	-1.036842e-004
-2.080000000000009e+000	4.200000e-001	2.500000e+000	2.500000e+000	-1.035522e-004
-2.070000000000009e+000	4.300000e-001	2.500000e+000	2.500000e+000	-1.034189e-004
-2.060000000000009e+000	4.400000e-001	2.500000e+000	2.500000e+000	-1.032844e-004
-2.050000000000010e+000	4.500000e-001	2.500000e+000	2.500000e+000	-1.031487e-004
-2.040000000000010e+000	4.600000e-001	2.500000e+000	2.500000e+000	-1.030117e-004
-2.030000000000010e+000	4.700000e-001	2.500000e+000	2.500000e+000	-1.028735e-004
-2.020000000000010e+000	4.800000e-001	2.500000e+000	2.500000e+000	-1.027340e-004
-2.010000000000010e+000	4.900000e-001	2.500000e+000	2.500000e+000	-1.025932e-004
-2.000000000000011e+000	5.000000e-001	2.500000e+000	2.500000e+000	-1.024511e-004
-1.990000000000011e+000	5.100000e-001	2.500000e+000	2.500000e+000	-1.023077e-004
-1.980000000000011e+000	5.200000e-001	2.500000e+000	2.500000e+000	-1.021629e-004
-1.970000000000011e+000	5.300000e-001	2.500000e+000	2.500000e+000	-1.020169e-004
-1.960000000000011e+000	5.400000e-001	2.500000e+000	2.500000e+000	-1.018695e-004
-1.950000000000011e+000	5.500000e-001	2.500000e+000	2.500000e+000	-1.017207e-004
-1.940000000000011e+000	5.600000e-001	2.500000e+000	2.500000e+000	-1.015705e-004
-1.930000000000011e+000	5.700000e-001	2.500000e+000	2.500000e+000	-1.014190e-004
-1.920000000000011e+000	5.800000e-001	2.500000e+000	2.500000e+000	-1.012661e-004
-1.910000000000011e+000	5.900000e-001	2.500000e+000	2.500000e+000	-1.011117e-004
-1.900000000000011e+000	6.000000e-001	2.500000e+000	2.500000e+000	-1.009559e-004
-1.890000000000011e+000	6.100000e-001	2.500000e+000	2.500000e+000	-1.007987e-004
-1.880000000000011e+000	6.200000e-001	2.500000e+000	2.500000e+000	-1.006400e-004
-1.870000000000011e+000	6.300000e-001	2.500000e+000	2.500000e+000	-1.004798e-004
-1.860000000000011e+000	6.400000e-001	2.500000e+000	2.500000e+000	-1.003182e-004
-1.850000000000011e+000	6.500000e-001	2.500000e+000	2.500000e+000	-1.001551e-004
-1.840000000000011e+000	6.600000e-001	2.500000e+000	2.500000e+000	-9.999044e-005
-1.830000000000011e+000	6.700000e-001	2.500000e+000	2.500000e+000	-9.982427e-005
-1.820000000000011e+000	6.800000e-001	2.500000e+000	2.500000e+000	-9.965656e-005
-1.810000000000011e+000	6.900000e-001	2.500000e+000	2.500000e+000	-9.948730e-005
-1.800000000000011e+000	7.000000e-001	2.500000e+000	2.500000e+000	-9.931646e-005
-1.790000000000011e+000	7.100000e-001	2.500000e+000	2.500000e+000	-9.914405e-005
-1.780000000000011e+000	7.200000e-001	2.500000e+000	2.500000e+000	-9.897005e-005
-1.770000000000011e+000	7.300000e-001	2.500000e+000	2.500000e+000	-9.879443e-005
-1.760000000000010e+000	7.400000e-001	2.500000e+000	2.500000e+000	-9.861719e-005
-1.750000000000010e+000	7.500000e-001	2.500000e+000	2.500000e+000	-9.843831e-005
-1.740000000000010e+000	7.600000e-001	2.500000e+000	2.500000e+000	-9.825777e-005
-1.730000000000010e+000	7.700000e-001	2.500000e+000	2.500000e+000	-9.807557e-005
-1.720000000000010e+000	7.800000e-001	2.500000e+000	2.500000e+000	-9.789169e-005
-1.710000000000010e+000	7.900000e-001	2.500000e+000	2.500000e+000	-9.770611e-005
-1.700000000000010e+000	8.000000e-001	2.500000e+000	2.500000e+000	-9.751883e-005
-1.690000000000010e+000	8.100000e-001	2.500000e+000	2.500000e+000	-9.732982e-005
-1.680000000000010e+000	8.200000e-001	2.500000e+000	2.500000e+000	-9.713908e-005
-1.670000000000010e+000	8.300000e-001	2.500000e+000	2.500000e+000	-9.694660e-005
-1.660000000000010e+000	8.400000e-001	2.500000e+000	2.500000e+000	-9.675235e-005
-1.650000000000010e+000	8.500000e-001	2.500000e+000	2.500000e+000	-9.655633e-005
-1.640000000000010e+000	8.600000e-001	2.500000e+000	2.500000e+000	-9.635853e-005
-1.630000000000010e+000	8.700000e-001	2.500000e+000	2.500000e+000	-9.615892e-005
-1.620000000000010e+000	8.800000e-001	2.500000e+000	2.500000e+000	-9.595752e-005
-1.610000000000010e+000	8.900000e-001	2.500000e+000	2.500000e+000	-9.575430e-005
-1.600000000000010e+000	9.000000e-001	2.500000e+000	2.500000e+000	-9.554925e-005
-1.590000000000010e+000	9.100000e-001	2.500000e+000	2.500000e+000	-9.534237e-005
-1.580000000000010e+000	9.200000e-001	2.500000e+000	2.500000e+000	-9.513365e-005
-1.570000000000010e+000	9.300000e-001	2.500000e+000	2.500000e+000	-9.492307e-005
-1.560000000000010e+000	9.400000e-001	2.500000e+000	2.500000e+000	-9.471065e-005
-1.550000000000010e+000	9.500000e-001	2.500000e+000	2.500000e+000	-9.449636e-005
-1.540000000000010e+000	9.600000e-001	2.500000e+000	2.500000e+000	-9.428021e-005
-1.530000000000010e+000	9.700000e-001	2.500000e+000	2.500000e+000	-9.406220e-005
-1.520000000000010e+000	9.800000e-001	2.500000e+000	2.500000e+000	-9.384233e-005
-1.510000000000010e+000	9.900000e-001	2.500000e+000	2.500000e+000	-9.362059e-005
-1.500000000000010e+000	1.000000e+000	2.500000e+000	2.500000e+000	-9.339699e-005
-1.490000000000010e+000	1.010000e+000	2.500000e+000	2.500000e+000	-9.317153e-005
-1.480000000000010e+000	1.020000e+000	2.500000e+000	2.500000e+000	-9.294422e-005
-1.470000000000010e+000	1.030000e+000	2.500000e+000	2.500000e+000	-9.271506e-005
-1.460000000000010e+000	1.040000e+000	2.500000e+000	2.500000e+000	-9.248406e-005
-1.450000000000010e+000	1.050000e+000	2.500000e+000	2.500000e+000	-9.225122e-005
-1.440000000000010e+000	1.060000e+000	2.500000e+000	2.500000e+000	-9.201653e-005
-1.430000000000010e+000	1.070000e+000	2.500000e+000	2.500000e+000	-9.178001e-005
-1.420000000000010e+000	1.080000e+000	2.500000e+000	2.500000e+000	-9.154165e-005
-1.410000000000010e+000	1.090000e+000	2.500000e+000	2.500000e+000	-9.130142e-005
-1.400000000000010e+000	1.100000e+000	2.500000e+000	2.500000e+000	-9.105930e-005
-1.390000000000010e+000	1.110000e+000	2.500000e+000	2.500000e+000	-9.081524e-005
-1.380000000000010e+000	1.120000e+000	2.500000e+000	2.500000e+000	-9.056917e-005
-1.370000000000010e+000	1.130000e+000	2.500000e+000	2.500000e+000	-9.032100e-005
-1.360000000000010e+000	1.140000e+000	2.500000e+000	2.500000e+000	-9.007059e-005
-1.350000000000010e+000	1.150000e+000	2.500000e+000	2.500000e+000	-8.981774e-005
-1.340000000000010e+000	1.160000e+000	2.500000e+000	2.500000e+000	-8.956221e-005
-1.330000000000010e+000	1.170000e+000	2.500000e+000	2.500000e+000	-8.930371e-005
-1.320000000000010e+000	1.180000e+000	2.500000e+000	2.500000e+000	-8.904182e-005
-1.310000000000010e+000	1.190000e+000	2.500000e+000	2.500000e+000	-8.877606e-005
-1.300000000000010e+000	1.200000e+000	2.500000e+000	2.500000e+000	-8.850586e-005
-1.290000000000010e+000	1.210000e+000	2.500000e+000	2.500000e+000	-8.823057e-005
-1.280000000000010e+000	1.220000e+000	2.500000e+000	2.500000e+000	-8.794943e-005
-1.270000000000010e+000	1.230000e+000	2.500000e+000	2.500000e+000	-8.766167e-005
-1.260000000000010e+000	1.240000e+000	2.500000e+000	2.500000e+000	-8.736644e-005
-1.250000000000010e+000	1.250000e+000	2.500000e+000	2.500000e+000	-8.706291e-005
-1.240000000000010e+000	1.260000e+000	2.500000e+000	2.500000e+000	-8.675029e-005
-1.230000000000010e+000	1.270000e+000	2.500000e+000	2.500000e+000	-8.642782e-005
-1.220000000000010e+000	1.280000e+000	2.500000e+000	2.500000e+000	-8.609483e-005
-1.210000000000010e+000	1.290000e+000	2.500000e+000	2.500000e+000	-8.575076e-005
-1.200000000000010e+000	1.300000e+000	2.500000e+000	2.500000e+000	-8.539510e-005
-1.190000000000010e+000	1.310000e+000	2.500000e+000	2.500000e+000	-8.502747e-005
-1.180000000000010e+000	1.320000e+000	2.500000e+000	2.500000e+000	-8.464755e-005
-1.170000000000010e+000	1.330000e+000	2.500000e+000	2.500000e+000	-8.425515e-005
-1.160000000000010e+000	1.340000e+000	2.500000e+000	2.500000e+000	-8.385009e-005
-1.150000000000010e+000	1.350000e+000	2.500000e+000	2.500000e+000	-8.343233e-005
-1.140000000000010e+000	1.360000e+000	2.500000e+000	2.500000e+000	-8.300181e-005
-1.130000000000010e+000	1.370000e+000	2.500000e+000	2.500000e+000	-8.255858e-005
-1.120000000000010e+000	1.380000e+000	2.500000e+000	2.500000e+000	-8.210269e-005
-1.110000000000010e+000	1.390000e+000	2.500000e+000	2.500000e+000	-8.163424e-005
-1.100000000000010e+000	1.400000e+000	2.500000e+000	2.500000e+000	-8.115333e-005
-1.090000000000010e+000	1.410000e+000	2.500000e+000	2.500000e+000	-8.066013e-005
-1.080000000000010e+000	1.420000e+000	2.500000e+000	2.500000e+000	-8.015477e-005
-1.070000000000010e+000	1.430000e+000	2.500000e+000	2.500000e+000	-7.963743e-005
-1.060000000000010e+000	1.440000e+000	2.500000e+000	2.500000e+000	-7.910829e-005
-1.050000000000010e+000	1.450000e+000	2.500000e+000	2.500000e+000	-7.856751e-005
-1.040000000000010e+000	1.460000e+000	2.500000e+000	2.500000e+000	-7.801530e-005
-1.030000000000010e+000	1.470000e+000	2.500000e+000	2.500000e+000	-7.745183e-005
-1.020000000000010e+000	1.480000e+000	2.500000e+000	2.500000e+000	-7.687730e-005
-1.010000000000010e+000	1.490000e+000	2.500000e+000	2.500000e+000	-7.629188e-005
-1.000000000000010e+000	1.500000e+000	2.500000e+000	2.500000e+000	-7.569577e-005
-9.900000000000098e-001	1.510000e+000	2.500000e+000	2.500000e+000	-7.508915e-005
-9.800000000000098e-001	1.520000e+000	2.500000e+000	2.500000e+000	-7.447219e-005
-9.700000000000097e-001	1.530000e+000	2.500000e+000	2.500000e+000	-7.384508e-005
-9.600000000000097e-001	1.540000e+000	2.500000e+000	2.500000e+000	-7.320796e-005
-9.500000000000097e-001	1.550000e+000	2.500000e+000	2.500000e+000	-7.256103e-005
-9.400000000000097e-001	1.560000e+000	2.500000e+000	2.500000e+000	-7.190443e-005
-9.300000000000097e-001	1.570000e+000	2.500000e+000	2.500000e+000	-7.123830e-005
-9.200000000000097e-001	1.580000e+000	2.500000e+000	2.500000e+000	-7.056282e-005
-9.100000000000097e-001	1.590000e+000	2.500000e+000	2.500000e+000	-6.987811e-005
-9.000000000000097e-001	1.600000e+000	2.500000e+000	2.500000e+000	-6.918430e-005
-8.900000000000097e-001	1.610000e+000	2.500000e+000	2.500000e+000	-6.848154e-005
-8.800000000000097e-001	1.620000e+000	2.500000e+000	2.500000e+000	-6.776994e-005
-8.700000000000097e-001	1.630000e+000	2.500000e+000	2.500000e+000	-6.704961e-005
-8.600000000000097e-001	1.640000e+000	2.500000e+000	2.500000e+000	-6.632067e-005
-8.500000000000096e-001	1.650000e+000	2.500000e+000	2.500000e+000	-6.558320e-005
-8.400000000000096e-001	1.660000e+000	2.500000e+000	2.500000e+000	-6.483732e-005
-8.300000000000096e-001	1.670000e+000	2.500000e+000	2.500000e+000	-6.408310e-005
-8.200000000000096e-001	1.680000e+000	2.500000e+000	2.500000e+000	-6.332062e-005
-8.100000000000096e-001	1.690000e+000	2.500000e+000	2.500000e+000	-6.254995e-005
-8.000000000000096e-001	1.700000e+000	2.500000e+000	2.500000e+000	-6.177114e-005
-7.900000000000096e-001	1.710000e+000	2.500000e+000	2.500000e+000	-6.098426e-005
-7.800000000000096e-001	1.720000e+000	2.500000e+000	2.500000e+000	-6.018934e-005
-7.700000000000096e-001	1.730000e+000	2.500000e+000	2.500000e+000	-5.938643e-005
-7.600000000000096e-001	1.740000e+000	2.500000e+000	2.500000e+000	-5.857555e-005
-7.500000000000096e-001	1.750000e+000	2.500000e+000	2.500000e+000	-5.775672e-005
-7.400000000000095e-001	1.760000e+000	2.500000e+000	2.500000e+000	-5.692996e-005
-7.300000000000095e-001	1.770000e+000	2.500000e+000	2.500000e+000	-5.609529e-005
-7.200000000000095e-001	1.780000e+000	2.500000e+000	2.500000e+000	-5.525273e-005
-7.100000000000095e-001	1.790000e+000	2.500000e+000	2.500000e+000	-5.440230e-005
-7.000000000000095e-001	1.800000e+000	2.500000e+000	2.500000e+000	-5.354404e-005
-6.900000000000095e-001	1.810000e+000	2.500000e+000	2.500000e+000	-5.267804e-005
-6.800000000000095e-001	1.820000e+000	2.500000e+000	2.500000e+000	-5.180442e-005
-6.700000000000095e-001	1.830000e+000	2.500000e+000	2.500000e+000	-5.092336e-005
-6.600000000000095e-001	1.840000e+000	2.500000e+000	2.500000e+000	-5.003512e-005
-6.500000000000095e-001	1.850000e+000	2.500000e+000	2.500000e+000	-4.914004e-005
-6.400000000000095e-001	1.860000e+000	2.500000e+000	2.500000e+000	-4.823849e-005
-6.300000000000094e-001	1.870000e+000	2.500000e+000	2.500000e+000	-4.733091e-005
-6.200000000000094e-001	1.880000e+000	2.500000e+000	2.500000e+000	-4.641790e-005
-6.100000000000094e-001	1.890000e+000	2.500000e+000	2.500000e+000	-4.550036e-005
-6.000000000000094e-001	1.900000e+000	2.500000e+000	2.500000e+000	-4.457953e-005
-5.900000000000094e-001	1.910000e+000	2.500000e+000	2.500000e+000	-4.365688e-005
-5.800000000000094e-001	1.920000e+000	2.500000e+000	2.500000e+000	-4.273386e-005
-5.700000000000094e-001	1.930000e+000	2.500000e+000	2.500000e+000	-4.181176e-005
-5.600000000000094e-001	1.940000e+000	2.500000e+000	2.500000e+000	-4.089157e-005
-5.500000000000094e-001	1.950000e+000	2.500000e+000	2.500000e+000	-3.997407e-005
-5.400000000000094e-001	1.960000e+000	2.500000e+000	2.500000e+000	-3.905984e-005
-5.300000000000094e-001	1.970000e+000	2.500000e+000	2.500000e+000	-3.814931e-005
-5.200000000000093e-001	1.980000e+000	2.500000e+000	2.500000e+000	-3.724281e-005
-5.100000000000093e-001	1.990000e+000	2.500000e+000	2.500000e+000	-3.634062e-005
-5.000000000000093e-001	2.000000e+000	2.500000e+000	2.500000e+000	-3.544294e-005
-4.900000000000093e-001	2.010000e+000	2.500000e+000	2.500000e+000	-3.454996e-005
-4.800000000000093e-001	2.020000e+000	2.500000e+000	2.500000e+000	-3.366187e-005
-4.700000000000093e-001	2.030000e+000	2.500000e+000	2.500000e+000	-3.277879e-005
-4.600000000000093e-001	2.040000e+000	2.500000e+000	2.500000e+000	-3.190087e-005
-4.500000000000093e-001	2.050000e+000	2.500000e+000	2.500000e+000	-3.102824e-005
-4.400000000000093e-001	2.060000e+000	2.500000e+000	2.500000e+000	-3.016104e-005
-4.300000000000093e-001	2.070000e+000	2.500000e+000	2.500000e+000	-2.929938e-005
-4.200000000000093e-001	2.080000e+000	2.500000e+000	2.500000e+000	-2.844339e-005
-4.100000000000093e-001	2.090000e+000	2.500000e+000	2.500000e+000	-2.759317e-005
-4.000000000000092e-001	2.100000e+000	2.500000e+000	2.500000e+000	-2.674886e-005
-3.900000000000092e-001	2.110000e+000	2.500000e+000	2.500000e+000	-2.591055e-005
-3.800000000000092e-001	2.120000e+000	2.500000e+000	2.500000e+000	-2.507838e-005
-3.700000000000092e-001	2.130000e+000	2.500000e+000	2.500000e+000	-2.425245e-005
-3.600000000000092e-001	2.140000e+000	2.500000e+000	2.500000e+000	-2.343288e-005
-3.500000000000092e-001	2.150000e+000	2.500000e+000	2.500000e+000	-2.261979e-005
-3.400000000000092e-001	2.160000e+000	2.500000e+000	2.500000e+000	-2.181330e-005
-3.300000000000092e-001	2.170000e+000	2.500000e+000	2.500000e+000	-2.101354e-005
-3.200000000000092e-001	2.180000e+000	2.500000e+000	2.500000e+000	-2.022063e-005
-3.100000000000092e-001	2.190000e+000	2.500000e+000	2.500000e+000	-1.943473e-005
-3.000000000000092e-001	2.200000e+000	2.500000e+000	2.500000e+000	-1.865598e-005
-2.900000000000091e-001	2.210000e+000	2.500000e+000	2.500000e+000	-1.788455e-005
-2.800000000000091e-001	2.220000e+000	2.500000e+000	2.500000e+000	-1.712063e-005
-2.700000000000091e-001	2.230000e+000	2.500000e+000	2.500000e+000	-1.636442e-005
-2.600000000000091e-001	2.240000e+000	2.500000e+000	2.500000e+000	-1.561617e-005
-2.500000000000091e-001	2.250000e+000	2.500000e+000	2.500000e+000	-1.487611e-005
-2.400000000000091e-001	2.260000e+000	2.500000e+000	2.500000e+000	-1.414452e-005
-2.300000000000091e-001	2.270000e+000	2.500000e+000	2.500000e+000	-1.342170e-005
-2.200000000000091e-001	2.280000e+000	2.500000e+000	2.500000e+000	-1.270798e-005
-2.100000000000091e-001	2.290000e+000	2.500000e+000	2.500000e+000	-1.200368e-005
-2.000000000000091e-001	2.300000e+000	2.500000e+000	2.500000e+000	-1.130903e-005
-1.900000000000091e-001	2.310000e+000	2.500000e+000	2.500000e+000	-1.062423e-005
-1.800000000000090e-001	2.320000e+000	2.500000e+000	2.500000e+000	-9.949419e-006
-1.700000000000090e-001	2.330000e+000	2.500000e+000	2.500000e+000	-9.284720e-006
-1.600000000000090e-001	2.340000e+000	2.500000e+000	2.500000e+000	-8.630240e-006
-1.500000000000090e-001	2.350000e+000	2.500000e+000	2.500000e+000	-7.986079e-006
-1.400000000000090e-001	2.360000e+000	2.500000e+000	2.500000e+000	-7.352332e-006
-1.300000000000090e-001	2.370000e+000	2.500000e+000	2.500000e+000	-6.729090e-006
-1.200000000000090e-001	2.380000e+000	2.500000e+000	2.500000e+000	-6.116442e-006
-1.100000000000090e-001	2.390000e+000	2.500000e+000	2.500000e+000	-5.514473e-006
-1.000000000000090e-001	2.400000e+000	2.500000e+000	2.500000e+000	-4.923264e-006
-9.000000000000902e-002	2.410000e+000	2.500000e+000	2.500000e+000	-4.342896e-006
-8.000000000000902e-002	2.420000e+000	2.500000e+000	2.500000e+000	-3.773446e-006
-7.000000000000903e-002	2.430000e+000	2.500000e+000	2.500000e+000	-3.214986e-006
-6.000000000000903e-002	2.440000e+000	2.500000e+000	2.500000e+000	-2.667588e-006
-5.000000000000902e-002	2.450000e+000	2.500000e+000	2.500000e+000	-2.131318e-006
-4.000000000000902e-002	2.460000e+000	2.500000e+000	2.500000e+000	-1.606239e-006
-3.000000000000902e-002	2.470000e+000	2.500000e+000	2.500000e+000	-1.092411e-006
-2.000000000000902e-002	2.480000e+000	2.500000e+000	2.500000e+000	-5.898857e-007
-1.000000000000902e-002	2.490000e+000	2.500000e+000	2.500000e+000	-9.870065e-008
-9.017092628127443e-015	2.500000e+000	2.500000e+000	2.500000e+000	3.820541e-007
9.999999999990983e-003	2.510000e+000	2.500000e+000	2.500000e+000	8.663353e-007
1.999999999999098e-002	2.520000e+000	2.500000e+000	2.500000e+000	1.362322e-006
2.999999999999099e-002	2.530000e+000	2.500000e+000	2.500000e+000	1.869081e-006
3.999999999999099e-002	2.540000e+000	2.500000e+000	2.500000e+000	2.386512e-006
4.999999999999099e-002	2.550000e+000	2.500000e+000	2.500000e+000	2.914509e-006
5.999999999999099e-002	2.560000e+000	2.500000e+000	2.500000e+000	3.452958e-006
6.999999999999099e-002	2.570000e+000	2.500000e+000	2.500000e+000	4.001741e-006
7.999999999999098e-002	2.580000e+000	2.500000e+000	2.500000e+000	4.560736e-006
8.999999999999098e-002	2.590000e+000	2.500000e+000	2.500000e+000	5.129819e-006
9.999999999999097e-002	2.600000e+000	2.500000e+000	2.500000e+000	5.708861e-006
1.099999999999910e-001	2.610000e+000	2.500000e+000	2.500000e+000	6.297734e-006
1.199999999999910e-001	2.620000e+000	2.500000e+000	2.500000e+000	6.896305e-006
1.299999999999910e-001	2.630000e+000	2.500000e+000	2.500000e+000	7.504440e-006
1.399999999999910e-001	2.640000e+000	2.500000e+000	2.500000e+000	8.122001e-006
1.499999999999910e-001	2.650000e+000	2.500000e+000	2.500000e+000	8.748842e-006
1.599999999999910e-001	2.660000e+000	2.500000e+000	2.500000e+000	9.384788e-006
1.699999999999910e-001	2.670000e+000	2.500000e+000	2.500000e+000	1.002959e-005
1.799999999999910e-001	2.680000e+000	2.500000e+000	2.500000e+000	1.068284e-005
1.899999999999910e-001	2.690000e+000	2.500000e+000	2.500000e+000	1.134399e-005
1.999999999999910e-001	2.700000e+000	2.500000e+000	2.500000e+000	1.201252e-005
2.099999999999910e-001	2.710000e+000	2.500000e+000	2.500000e+000	1.268799e-005
2.199999999999910e-001	2.720000e+000	2.500000e+000	2.500000e+000	1.337001e-005
2.299999999999910e-001	2.730000e+000	2.500000e+000	2.500000e+000	1.405826e-005
2.399999999999911e-001	2.740000e+000	2.500000e+000	2.500000e+000	1.475247e-005
2.499999999999911e-001	2.750000e+000	2.500000e+000	2.500000e+000	1.545243e-005
2.599999999999911e-001	2.760000e+000	2.500000e+000	2.500000e+000	1.615795e-005
2.699999999999911e-001	2.770000e+000	2.500000e+000	2.500000e+000	1.686888e-005
2.799999999999911e-001	2.780000e+000	2.500000e+000	2.500000e+000	1.758507e-005
2.899999999999911e-001	2.790000e+000	2.500000e+000	2.500000e+000	1.830638e-005
2.999999999999911e-001	2.800000e+000	2.500000e+000	2.500000e+000	1.903270e-005
3.099999999999911e-001	2.810000e+000	2.500000e+000	2.500000e+000	1.976387e-005
3.199999999999911e-001	2.820000e+000	2.500000e+000	2.500000e+000	2.049980e-005
3.299999999999911e-001	2.830000e+000	2.500000e+000	2.500000e+000	2.124035e-005
3.399999999999911e-001	2.840000e+000	2.500000e+000	2.500000e+000	2.198540e-005
3.499999999999912e-001	2.850000e+000	2.500000e+000	2.500000e+000	2.273485e-005
3.599999999999912e-001	2.860000e+000	2.500000e+000	2.500000e+000	2.348856e-005
3.699999999999912e-001	2.870000e+000	2.500000e+000	2.500000e+000	2.424643e-005
3.799999999999912e-001	2.880000e+000	2.500000e+000	2.500000e+000	2.500835e-005
3.899999999999912e-001	2.890000e+000	2.500000e+000	2.500000e+000	2.577419e-005
3.999999999999912e-001	2.900000e+000	2.500000e+000	2.500000e+000	2.654385e-005
4.099999999999912e-001	2.910000e+000	2.500000e+000	2.500000e+000	2.731721e-005
4.199999999999912e-001	2.920000e+000	2.500000e+000	2.500000e+000	2.809416e-005
4.299999999999912e-001	2.930000e+000	2.500000e+000	2.500000e+000	2.887459e-005
4.399999999999912e-001	2.940000e+000	2.500000e+000	2.500000e+000	2.965837e-005
4.499999999999912e-001	2.950000e+000	2.500000e+000	2.500000e+000	3.044541e-005
4.599999999999913e-001	2.960000e+000	2.500000e+000	2.500000e+000	3.123558e-005
4.699999999999913e-001	2.970000e+000	2.500000e+000	2.500000e+000	3.202878e-005
4.799999999999913e-001	2.980000e+000	2.500000e+000	2.500000e+000	3.282489e-005
4.899999999999913e-001	2.990000e+000	2.500000e+000	2.500000e+000	3.362379e-005
4.999999999999913e-001	3.000000e+000	2.500000e+000	2.500000e+000	3.442537e-005
5.099999999999912e-001	3.010000e+000	2.500000e+000	2.500000e+000	3.522952e-005
5.199999999999913e-001	3.020000e+000	2.500000e+000	2.500000e+000	3.603611e-005
5.299999999999913e-001	3.030000e+000	2.500000e+000	2.500000e+000	3.684504e-005
5.399999999999913e-001	3.040000e+000	2.500000e+000	2.500000e+000	3.765618e-005
5.499999999999913e-001	3.050000e+000	2.500000e+000	2.500000e+000	3.846942e-005
5.599999999999913e-001	3.060000e+000	2.500000e+000	2.500000e+000	3.928463e-005
5.699999999999913e-001	3.070000e+000	2.500000e+000	2.500000e+000	4.010169e-005
5.799999999999913e-001	3.080000e+000	2.500000e+000	2.500000e+000	4.092048e-005
5.899999999999913e-001	3.090000e+000	2.500000e+000	2.500000e+000	4.174088e-005
5.999999999999913e-001	3.100000e+000	2.500000e+000	2.500000e+000	4.256275e-005
6.099999999999913e-001	3.110000e+000	2.500000e+000	2.500000e+000	4.338596e-005
6.199999999999913e-001	3.120000e+000	2.500000e+000	2.500000e+000	4.421038e-005
6.299999999999913e-001	3.130000e+000	2.500000e+000	2.500000e+000	4.503587e-005
6.399999999999914e-001	3.140000e+000	2.500000e+000	2.500000e+000	4.586230e-005
6.499999999999914e-001	3.150000e+000	2.500000e+000	2.500000e+000	4.668950e-005
6.599999999999914e-001	3.160000e+000	2.500000e+000	2.500000e+000	4.751734e-005
6.699999999999914e-001	3.170000e+000	2.500000e+000	2.500000e+000	4.834564e-005
6.799999999999914e-001	3.180000e+000	2.500000e+000	2.500000e+000	4.917422e-005
6.899999999999914e-001	3.190000e+000	2.500000e+000	2.500000e+000	5.000292e-005
6.999999999999914e-001	3.200000e+000	2.500000e+000	2.500000e+000	5.083153e-005
7.099999999999914e-001	3.210000e+000	2.500000e+000	2.500000e+000	5.165981e-005
7.199999999999914e-001	3.220000e+000	2.500000e+000	2.500000e+000	5.248752e-005
7.299999999999914e-001	3.230000e+000	2.500000e+000	2.500000e+000	5.331437e-005
7.399999999999914e-001	3.240000e+000	2.500000e+000	2.500000e+000	5.413997e-005
7.499999999999915e-001	3.250000e+000	2.500000e+000	2.500000e+000	5.496387e-005
7.599999999999915e-001	3.260000e+000	2.500000e+000	2.500000e+000	5.578540e-005
7.699999999999915e-001	3.270000e+000	2.500000e+000	2.500000e+000	5.660361e-005
7.799999999999915e-001	3.280000e+000	2.500000e+000	2.500000e+000	5.741699e-005
7.899999999999915e-001	3.290000e+000	2.500000e+000	2.500000e+000	5.822326e-005
7.999999999999915e-001	3.300000e+000	2.500000e+000	2.500000e+000	5.901917e-005
8.099999999999915e-001	3.310000e+000	2.500000e+000	2.500000e+000	5.980030e-005
8.199999999999915e-001	3.320000e+000	2.500000e+000	2.500000e+000	6.056107e-005
8.299999999999915e-001	3.330000e+000	2.500000e+000	2.500000e+000	6.129577e-005
8.399999999999915e-001	3.340000e+000	2.500000e+000	2.500000e+000	6.200010e-005
8.499999999999915e-001	3.350000e+000	2.500000e+000	2.500000e+000	6.267215e-005
8.599999999999916e-001	3.360000e+000	2.500000e+000	2.500000e+000	6.331224e-005
8.699999999999916e-001	3.370000e+000	2.500000e+000	2.500000e+000	6.392198e-005
8.799999999999916e-001	3.380000e+000	2.500000e+000	2.500000e+000	6.450355e-005
8.899999999999916e-001	3.390000e+000	2.500000e+000	2.500000e+000	6.505923e-005
8.999999999999916e-001	3.400000e+000	2.500000e+000	2.500000e+000	6.559119e-005
9.099999999999916e-001	3.410000e+000	2.500000e+000	2.500000e+000	6.610136e-005
9.199999999999916e-001	3.420000e+000	2.500000e+000	2.500000e+000	6.659151e-005
9.299999999999916e-001	3.430000e+000	2.500000e+000	2.500000e+000	6.706314e-005
9.399999999999916e-001	3.440000e+000	2.500000e+000	2.500000e+000	6.751764e-005
9.499999999999916e-001	3.450000e+000	2.500000e+000	2.500000e+000	6.795619e-005
9.599999999999916e-001	3.460000e+000	2.500000e+000	2.500000e+000	6.837984e-005
9.699999999999917e-001	3.470000e+000	2.500000e+000	2.500000e+000	6.878954e-005
9.799999999999917e-001	3.480000e+000	2.500000e+000	2.500000e+000	6.918614e-005
9.899999999999917e-001	3.490000e+000	2.500000e+000	2.500000e+000	6.957036e-005
9.999999999999917e-001	3.500000e+000	2.500000e+000	2.500000e+000	6.994287e-005
1.009999999999992e+000	3.510000e+000	2.500000e+000	2.500000e+000	7.030429e-005
1.019999999999992e+000	3.520000e+000	2.500000e+000	2.500000e+000	7.065516e-005
1.029999999999992e+000	3.530000e+000	2.500000e+000	2.500000e+000	7.099596e-005
1.039999999999992e+000	3.540000e+000	2.500000e+000	2.500000e+000	7.132714e-005
1.049999999999992e+000	3.550000e+000	2.500000e+000	2.500000e+000	7.164913e-005
1.059999999999992e+000	3.560000e+000	2.500000e+000	2.500000e+000	7.196226e-005
1.069999999999992e+000	3.570000e+000	2.500000e+000	2.500000e+000	7.226691e-005
1.079999999999992e+000	3.580000e+000	2.500000e+000	2.500000e+000	7.256336e-005
1.089999999999992e+000	3.590000e+000	2.500000e+000	2.500000e+000	7.285191e-005
1.099999999999992e+000	3.600000e+000	2.500000e+000	2.500000e+000	7.313283e-005
1.109999999999992e+000	3.610000e+000	2.500000e+000	2.500000e+000	7.340634e-005
1.119999999999992e+000	3.620000e+000	2.500000e+000	2.500000e+000	7.367269e-005
1.129999999999992e+000	3.630000e+000	2.500000e+000	2.500000e+000	7.393209e-005
1.139999999999992e+000	3.640000e+000	2.500000e+000	2.500000e+000	7.418471e-005
1.149999999999992e+000	3.650000e+000	2.500000e+000	2.500000e+000	7.443074e-005
1.159999999999992e+000	3.660000e+000	2.500000e+000	2.500000e+000	7.467035e-005
1.169999999999992e+000	3.670000e+000	2.500000e+000	2.500000e+000	7.490370e-005
1.179999999999992e+000	3.680000e+000	2.500000e+000	2.500000e+000	7.513093e-005
1.189999999999992e+000	3.690000e+000	2.500000e+000	2.500000e+000	7.535218e-005
1.199999999999992e+000	3.700000e+000	2.500000e+000	2.500000e+000	7.556758e-005
1.209999999999992e+000	3.710000e+000	2.500000e+000	2.500000e+000	7.577725e-005
1.219999999999992e+000	3.720000e+000	2.500000e+000	2.500000e+000	7.598130e-005
1.229999999999992e+000	3.730000e+000	2.500000e+000	2.500000e+000	7.617985e-005
1.239999999999992e+000	3.740000e+000	2.500000e+000	2.500000e+000	7.637299e-005
1.249999999999992e+000	3.750000e+000	2.500000e+000	2.500000e+000	7.656083e-005
1.259999999999992e+000	3.760000e+000	2.500000e+000	2.500000e+000	7.674347e-005
1.269999999999992e+000	3.770000e+000	2.500000e+000	2.500000e+000	7.692099e-005
1.279999999999992e+000	3.780000e+000	2.500000e+000	2.500000e+000	7.709348e-005
1.289999999999992e+000	3.790000e+000	2.500000e+000	2.500000e+000	7.726103e-005
1.299999999999992e+000	3.800000e+000	2.500000e+000	2.500000e+000	7.742373e-005
1.309999999999992e+000	3.810000e+000	2.500000e+000	2.500000e+000	7.758165e-005
1.319999999999992e+000	3.820000e+000	2.500000e+000	2.500000e+000	7.773490e-005
1.329999999999992e+000	3.830000e+000	2.500000e+000	2.500000e+000	7.788354e-005
1.339999999999992e+000	3.840000e+000	2.500000e+000	2.500000e+000	7.802768e-005
1.349999999999992e+000	3.850000e+000	2.500000e+000	2.500000e+000	7.816739e-005
1.359999999999992e+000	3.860000e+000	2.500000e+000	2.500000e+000	7.830277e-005
1.369999999999992e+000	3.870000e+000	2.500000e+000	2.500000e+000	7.843393e-005
1.379999999999992e+000	3.880000e+000	2.500000e+000	2.500000e+000	7.856096e-005
1.389999999999992e+000	3.890000e+000	2.500000e+000	2.500000e+000	7.868397e-005
1.399999999999992e+000	3.900000e+000	2.500000e+000	2.500000e+000	7.880309e-005
1.409999999999992e+000	3.910000e+000	2.500000e+000	2.500000e+000	7.891843e-005
1.419999999999992e+000	3.920000e+000	2.500000e+000	2.500000e+000	7.903015e-005
1.429999999999992e+000	3.930000e+000	2.500000e+000	2.500000e+000	7.913839e-005
1.439999999999992e+000	3.940000e+000	2.500000e+000	2.500000e+000	7.924331e-005
1.449999999999992e+000	3.950000e+000	2.500000e+000	2.500000e+000	7.934508e-005
1.459999999999992e+000	3.960000e+000	2.500000e+000	2.500000e+000	7.944390e-005
1.469999999999992e+000	3.970000e+000	2.500000e+000	2.500000e+000	7.953994e-005
1.479999999999992e+000	3.980000e+000	2.500000e+000	2.500000e+000	7.963341e-005
1.489999999999992e+000	3.990000e+000	2.500000e+000	2.500000e+000	7.972449e-005
1.499999999999992e+000	4.000000e+000	2.500000e+000	2.500000e+000	7.981339e-005
1.509999999999992e+000	4.010000e+000	2.500000e+000	2.500000e+000	7.990027e-005
1.519999999999992e+000	4.020000e+000	2.500000e+000	2.500000e+000	7.998531e-005
1.529999999999992e+000	4.030000e+000	2.500000e+000	2.500000e+000	8.006864e-005
1.539999999999992e+000	4.040000e+000	2.500000e+000	2.500000e+000	8.015038e-005
1.549999999999992e+000	4.050000e+000	2.500000e+000	2.500000e+000	8.023067e-005
1.559999999999992e+000	4.060000e+000	2.500000e+000	2.500000e+000	8.030957e-005
1.569999999999992e+000	4.070000e+000	2.500000e+000	2.500000e+000	8.038717e-005
1.579999999999992e+000	4.080000e+000	2.500000e+000	2.500000e+000	8.046353e-005
1.589999999999992e+000	4.090000e+000	2.500000e+000	2.500000e+000	8.053872e-005
1.599999999999992e+000	4.100000e+000	2.500000e+000	2.500000e+000	8.061277e-005
1.609999999999992e+000	4.110000e+000	2.500000e+000	2.500000e+000	8.068572e-005
1.619999999999992e+000	4.120000e+000	2.500000e+000	2.500000e+000	8.075762e-005
1.629999999999992e+000	4.130000e+000	2.500000e+000	2.500000e+000	8.082849e-005
1.639999999999992e+000	4.140000e+000	2.500000e+000	2.500000e+000	8.089836e-005
1.649999999999992e+000	4.150000e+000	2.500000e+000	2.500000e+000	8.096726e-005
1.659999999999992e+000	4.160000e+000	2.500000e+000	2.500000e+000	8.103521e-005
1.669999999999992e+000	4.170000e+000	2.500000e+000	2.500000e+000	8.110223e-005
1.679999999999992e+000	4.180000e+000	2.500000e+000	2.500000e+000	8.116836e-005
1.689999999999992e+000	4.190000e+000	2.500000e+000	2.500000e+000	8.123359e-005
1.699999999999992e+000	4.200000e+000	2.500000e+000	2.500000e+000	8.129796e-005
1.709999999999992e+000	4.210000e+000	2.500000e+000	2.500000e+000	8.136149e-005
1.719999999999992e+000	4.220000e+000	2.500000e+000	2.500000e+000	8.142419e-005
1.729999999999992e+000	4.230000e+000	2.500000e+000	2.500000e+000	8.148608e-005
1.739999999999992e+000	4.240000e+000	2.500000e+000	2.500000e+000	8.154716e-005
1.749999999999992e+000	4.250000e+000	2.500000e+000	2.500000e+000	8.160748e-005
1.759999999999992e+000	4.260000e+000	2.500000e+000	2.500000e+000	8.166702e-005
1.769999999999992e+000	4.270000e+000	2.500000e+000	2.500000e+000	8.172583e-005
1.779999999999992e+000	4.280000e+000	2.500000e+000	2.500000e+000	8.178389e-005
1.789999999999992e+000	4.290000e+000	2.500000e+000	2.500000e+000	8.184123e-005
1.799999999999992e+000	4.300000e+000	2.500000e+000	2.500000e+000	8.189787e-005
1.809999999999992e+000	4.310000e+000	2.500000e+000	2.500000e+000	8.195381e-005
1.819999999999992e+000	4.320000e+000	2.500000e+000	2.500000e+000	8.200907e-005
1.829999999999992e+000	4.330000e+000	2.500000e+000	2.500000e+000	8.206366e-005
1.839999999999992e+000	4.340000e+000	2.500000e+000	2.500000e+000	8.211761e-005
1.849999999999992e+000	4.350000e+000	2.500000e+000	2.500000e+000	8.217090e-005
1.859999999999992e+000	4.360000e+000	2.500000e+000	2.500000e+000	8.222356e-005
1.869999999999992e+000	4.370000e+000	2.500000e+000	2.500000e+000	8.227560e-005
1.879999999999992e+000	4.380000e+000	2.500000e+000	2.500000e+000	8.232703e-005
1.889999999999992e+000	4.390000e+000	2.500000e+000	2.500000e+000	8.237786e-005
1.899999999999992e+000	4.400000e+000	2.500000e+000	2.500000e+000	8.242811e-005
1.909999999999992e+000	4.410000e+000	2.500000e+000	2.500000e+000	8.247777e-005
1.919999999999992e+000	4.420000e+000	2.500000e+000	2.500000e+000	8.252687e-005
1.929999999999992e+000	4.430000e+000	2.500000e+000	2.500000e+000	8.257540e-005
1.939999999999992e+000	4.440000e+000	2.500000e+000	2.500000e+000	8.262339e-005
1.949999999999992e+000	4.450000e+000	2.500000e+000	2.500000e+000	8.267083e-005
1.959999999999992e+000	4.460000e+000	2.500000e+000	2.500000e+000	8.271775e-005
1.969999999999992e+000	4.470000e+000	2.500000e+000	2.500000e+000	8.276414e-005
1.979999999999992e+000	4.480000e+000	2.500000e+000	2.500000e+000	8.281002e-005
1.989999999999992e+000	4.490000e+000	2.500000e+000	2.500000e+000	8.285540e-005
1.999999999999993e+000	4.500000e+000	2.500000e+000	2.500000e+000	8.290027e-005
2.009999999999992e+000	4.510000e+000	2.500000e+000	2.500000e+000	8.294467e-005
2.019999999999992e+000	4.520000e+000	2.500000e+000	2.500000e+000	8.298857e-005
2.029999999999992e+000	4.530000e+000	2.500000e+000	2.500000e+000	8.303201e-005
2.039999999999992e+000	4.540000e+000	2.500000e+000	2.500000e+000	8.307498e-005
2.049999999999991e+000	4.550000e+000	2.500000e+000	2.500000e+000	8.311748e-005
2.059999999999991e+000	4.560000e+000	2.500000e+000	2.500000e+000	8.315955e-005
2.069999999999991e+000	4.570000e+000	2.500000e+000	2.500000e+000	8.320116e-005
2.079999999999991e+000	4.580000e+000	2.500000e+000	2.500000e+000	8.324234e-005
2.089999999999991e+000	4.590000e+000	2.500000e+000	2.500000e+000	8.328308e-005
2.099999999999990e+000	4.600000e+000	2.500000e+000	2.500000e+000	8.332341e-005
2.109999999999990e+000	4.610000e+000	2.500000e+000	2.500000e+000	8.336332e-005
2.119999999999990e+000	4.620000e+000	2.500000e+000	2.500000e+000	8.340281e-005
2.129999999999990e+000	4.630000e+000	2.500000e+000	2.500000e+000	8.344190e-005
2.139999999999990e+000	4.640000e+000	2.500000e+000	2.500000e+000	8.348060e-005
2.149999999999989e+000	4.650000e+000	2.500000e+000	2.500000e+000	8.351889e-005
2.159999999999989e+000	4.660000e+000	2.500000e+000	2.500000e+000	8.355681e-005
2.169999999999989e+000	4.670000e+000	2.500000e+000	2.500000e+000	8.359434e-005
2.179999999999989e+000	4.680000e+000	2.500000e+000	2.500000e+000	8.363149e-005
2.189999999999988e+000	4.690000e+000	2.500000e+000	2.500000e+000	8.366828e-005
2.199999999999988e+000	4.700000e+000	2.500000e+000	2.500000e+000	8.370470e-005
2.209999999999988e+000	4.710000e+000	2.500000e+000	2.500000e+000	8.374076e-005
2.219999999999988e+000	4.720000e+000	2.500000e+000	2.500000e+000	8.377647e-005
2.229999999999988e+000	4.730000e+000	2.500000e+000	2.500000e+000	8.381182e-005
2.239999999999987e+000	4.740000e+000	2.500000e+000	2.500000e+000	8.384683e-005
2.249999999999987e+000	4.750000e+000	2.500000e+000	2.500000e+000	8.388151e-005
2.259999999999987e+000	4.760000e+000	2.500000e+000	2.500000e+000	8.391585e-005
2.269999999999987e+000	4.770000e+000	2.500000e+000	2.500000e+000	8.394986e-005
2.279999999999987e+000	4.780000e+000	2.500000e+000	2.500000e+000	8.398354e-005
2.289999999999986e+000	4.790000e+000	2.500000e+000	2.500000e+000	8.401690e-005
2.299999999999986e+000	4.800000e+000	2.500000e+000	2.500000e+000	8.404995e-005
2.309999999999986e+000	4.810000e+000	2.500000e+000	2.500000e+000	8.408268e-005
2.319999999999986e+000	4.820000e+000	2.500000e+000	2.500000e+000	8.411511e-005
2.329999999999985e+000	4.830000e+000	2.500000e+000	2.500000e+000	8.414724e-005
2.339999999999985e+000	4.840000e+000	2.500000e+000	2.500000e+000	8.417905e-005
2.349999999999985e+000	4.850000e+000	2.500000e+000	2.500000e+000	8.421058e-005
2.359999999999985e+000	4.860000e+000	2.500000e+000	2.500000e+000	8.424182e-005
2.369999999999985e+000	4.870000e+000	2.500000e+000	2.500000e+000	8.427277e-005
2.379999999999984e+000	4.880000e+000	2.500000e+000	2.500000e+000	8.430343e-005
2.389999999999984e+000	4.890000e+000	2.500000e+000	2.500000e+000	8.433381e-005
2.399999999999984e+000	4.900000e+000	2.500000e+000	2.500000e+000	8.436392e-005
2.409999999999984e+000	4.910000e+000	2.500000e+000	2.500000e+000	8.439375e-005
2.419999999999984e+000	4.920000e+000	2.500000e+000	2.500000e+000	8.442332e-005
2.429999999999983e+000	4.930000e+000	2.500000e+000	2.500000e+000	8.445262e-005
2.439999999999983e+000	4.940000e+000	2.500000e+000	2.500000e+000	8.448165e-005
2.449999999999983e+000	4.950000e+000	2.500000e+000	2.500000e+000	8.451044e-005
2.459999999999983e+000	4.960000e+000	2.500000e+000	2.500000e+000	8.453896e-005
2.469999999999982e+000	4.970000e+000	2.500000e+000	2.500000e+000	8.456723e-005
2.479999999999982e+000	4.980000e+000	2.500000e+000	2.500000e+000	8.459525e-005
2.489999999999982e+000	4.990000e+000	2.500000e+000	2.500000e+000	8.462302e-005
2.500000000000000e+000	5.000000e+000	2.500000e+000	2.500000e+000	8.465055e-005
